digraph Tree {
node [shape=box, style="filled", color="black"] ;
0 [label="Title <= 2.5\ngini = 0.473\nsamples = 712\nvalue = [438, 274]\nclass = Died", fillcolor="#e581395f"] ;
1 [label="Pclass <= 1.5\ngini = 0.256\nsamples = 419\nvalue = [356, 63]\nclass = Died", fillcolor="#e58139d2"] ;
0 -> 1 [labeldistance=2.5, labelangle=45, headlabel="True"] ;
2 [label="Age <= 5.5\ngini = 0.454\nsamples = 92\nvalue = [60, 32]\nclass = Died", fillcolor="#e5813977"] ;
1 -> 2 ;
3 [label="gini = 0.493\nsamples = 41\nvalue = [18, 23]\nclass = Survived", fillcolor="#399de537"] ;
2 -> 3 ;
4 [label="gini = 0.291\nsamples = 51\nvalue = [42, 9]\nclass = Died", fillcolor="#e58139c8"] ;
2 -> 4 ;
5 [label="Tshare <= 5.5\ngini = 0.172\nsamples = 327\nvalue = [296, 31]\nclass = Died", fillcolor="#e58139e4"] ;
1 -> 5 ;
6 [label="gini = 0.155\nsamples = 319\nvalue = [292, 27]\nclass = Died", fillcolor="#e58139e7"] ;
5 -> 6 ;
7 [label="gini = 0.5\nsamples = 8\nvalue = [4, 4]\nclass = Died", fillcolor="#e5813900"] ;
5 -> 7 ;
8 [label="Pclass <= 2.5\ngini = 0.403\nsamples = 293\nvalue = [82, 211]\nclass = Survived", fillcolor="#399de59c"] ;
0 -> 8 [labeldistance=2.5, labelangle=-45, headlabel="False"] ;
9 [label="Title <= 3.5\ngini = 0.133\nsamples = 154\nvalue = [11, 143]\nclass = Survived", fillcolor="#399de5eb"] ;
8 -> 9 ;
10 [label="gini = 0.5\nsamples = 6\nvalue = [3, 3]\nclass = Died", fillcolor="#e5813900"] ;
9 -> 10 ;
11 [label="gini = 0.102\nsamples = 148\nvalue = [8, 140]\nclass = Survived", fillcolor="#399de5f0"] ;
9 -> 11 ;
12 [label="Tshare <= 3.5\ngini = 0.5\nsamples = 139\nvalue = [71, 68]\nclass = Died", fillcolor="#e581390b"] ;
8 -> 12 ;
13 [label="gini = 0.487\nsamples = 117\nvalue = [49, 68]\nclass = Survived", fillcolor="#399de547"] ;
12 -> 13 ;
14 [label="gini = 0.0\nsamples = 22\nvalue = [22, 0]\nclass = Died", fillcolor="#e58139ff"] ;
12 -> 14 ;
}