digraph Tree {
node [shape=box, style="filled", color="black"] ;
0 [label="Title <= 2.5\ngini = 0.473\nsamples = 712\nvalue = [438, 274]\nclass = Died", fillcolor="#e581395f"] ;
1 [label="Pclass <= 1.5\ngini = 0.256\nsamples = 419\nvalue = [356, 63]\nclass = Died", fillcolor="#e58139d2"] ;
0 -> 1 [labeldistance=2.5, labelangle=45, headlabel="True"] ;
2 [label="Age <= 5.5\ngini = 0.454\nsamples = 92\nvalue = [60, 32]\nclass = Died", fillcolor="#e5813977"] ;
1 -> 2 ;
3 [label="Farepp <= 1.5\ngini = 0.493\nsamples = 41\nvalue = [18, 23]\nclass = Survived", fillcolor="#399de537"] ;
2 -> 3 ;
4 [label="Cabin <= 3.5\ngini = 0.436\nsamples = 28\nvalue = [9, 19]\nclass = Survived", fillcolor="#399de586"] ;
3 -> 4 ;
5 [label="gini = 0.488\nsamples = 19\nvalue = [8, 11]\nclass = Survived", fillcolor="#399de546"] ;
4 -> 5 ;
6 [label="gini = 0.198\nsamples = 9\nvalue = [1, 8]\nclass = Survived", fillcolor="#399de5df"] ;
4 -> 6 ;
7 [label="Embarked <= 1.0\ngini = 0.426\nsamples = 13\nvalue = [9, 4]\nclass = Died", fillcolor="#e581398e"] ;
3 -> 7 ;
8 [label="gini = 0.5\nsamples = 6\nvalue = [3, 3]\nclass = Died", fillcolor="#e5813900"] ;
7 -> 8 ;
9 [label="gini = 0.245\nsamples = 7\nvalue = [6, 1]\nclass = Died", fillcolor="#e58139d4"] ;
7 -> 9 ;
10 [label="SibSp <= 0.5\ngini = 0.291\nsamples = 51\nvalue = [42, 9]\nclass = Died", fillcolor="#e58139c8"] ;
2 -> 10 ;
11 [label="Title <= 1.5\ngini = 0.184\nsamples = 39\nvalue = [35, 4]\nclass = Died", fillcolor="#e58139e2"] ;
10 -> 11 ;
12 [label="gini = 0.153\nsamples = 36\nvalue = [33, 3]\nclass = Died", fillcolor="#e58139e8"] ;
11 -> 12 ;
13 [label="gini = 0.444\nsamples = 3\nvalue = [2, 1]\nclass = Died", fillcolor="#e581397f"] ;
11 -> 13 ;
14 [label="Cabin <= 3.5\ngini = 0.486\nsamples = 12\nvalue = [7, 5]\nclass = Died", fillcolor="#e5813949"] ;
10 -> 14 ;
15 [label="gini = 0.494\nsamples = 9\nvalue = [4, 5]\nclass = Survived", fillcolor="#399de533"] ;
14 -> 15 ;
16 [label="gini = 0.0\nsamples = 3\nvalue = [3, 0]\nclass = Died", fillcolor="#e58139ff"] ;
14 -> 16 ;
17 [label="Tshare <= 5.5\ngini = 0.172\nsamples = 327\nvalue = [296, 31]\nclass = Died", fillcolor="#e58139e4"] ;
1 -> 17 ;
18 [label="Age <= 4.5\ngini = 0.155\nsamples = 319\nvalue = [292, 27]\nclass = Died", fillcolor="#e58139e7"] ;
17 -> 18 ;
19 [label="Embarked <= 0.5\ngini = 0.096\nsamples = 159\nvalue = [151, 8]\nclass = Died", fillcolor="#e58139f1"] ;
18 -> 19 ;
20 [label="gini = 0.255\nsamples = 20\nvalue = [17, 3]\nclass = Died", fillcolor="#e58139d2"] ;
19 -> 20 ;
21 [label="gini = 0.069\nsamples = 139\nvalue = [134, 5]\nclass = Died", fillcolor="#e58139f5"] ;
19 -> 21 ;
22 [label="SibSp <= 0.5\ngini = 0.209\nsamples = 160\nvalue = [141, 19]\nclass = Died", fillcolor="#e58139dd"] ;
18 -> 22 ;
23 [label="gini = 0.261\nsamples = 123\nvalue = [104, 19]\nclass = Died", fillcolor="#e58139d0"] ;
22 -> 23 ;
24 [label="gini = 0.0\nsamples = 37\nvalue = [37, 0]\nclass = Died", fillcolor="#e58139ff"] ;
22 -> 24 ;
25 [label="SibSp <= 0.5\ngini = 0.5\nsamples = 8\nvalue = [4, 4]\nclass = Died", fillcolor="#e5813900"] ;
17 -> 25 ;
26 [label="gini = 0.32\nsamples = 5\nvalue = [1, 4]\nclass = Survived", fillcolor="#399de5bf"] ;
25 -> 26 ;
27 [label="gini = 0.0\nsamples = 3\nvalue = [3, 0]\nclass = Died", fillcolor="#e58139ff"] ;
25 -> 27 ;
28 [label="Pclass <= 2.5\ngini = 0.403\nsamples = 293\nvalue = [82, 211]\nclass = Survived", fillcolor="#399de59c"] ;
0 -> 28 [labeldistance=2.5, labelangle=-45, headlabel="False"] ;
29 [label="Title <= 3.5\ngini = 0.133\nsamples = 154\nvalue = [11, 143]\nclass = Survived", fillcolor="#399de5eb"] ;
28 -> 29 ;
30 [label="Pclass <= 1.5\ngini = 0.5\nsamples = 6\nvalue = [3, 3]\nclass = Died", fillcolor="#e5813900"] ;
29 -> 30 ;
31 [label="Embarked <= 1.5\ngini = 0.375\nsamples = 4\nvalue = [1, 3]\nclass = Survived", fillcolor="#399de5aa"] ;
30 -> 31 ;
32 [label="gini = 0.5\nsamples = 2\nvalue = [1, 1]\nclass = Died", fillcolor="#e5813900"] ;
31 -> 32 ;
33 [label="gini = 0.0\nsamples = 2\nvalue = [0, 2]\nclass = Survived", fillcolor="#399de5ff"] ;
31 -> 33 ;
34 [label="gini = 0.0\nsamples = 2\nvalue = [2, 0]\nclass = Died", fillcolor="#e58139ff"] ;
30 -> 34 ;
35 [label="Faretot <= 0.5\ngini = 0.102\nsamples = 148\nvalue = [8, 140]\nclass = Survived", fillcolor="#399de5f0"] ;
29 -> 35 ;
36 [label="Tshare <= 0.5\ngini = 0.26\nsamples = 26\nvalue = [4, 22]\nclass = Survived", fillcolor="#399de5d1"] ;
35 -> 36 ;
37 [label="gini = 0.219\nsamples = 24\nvalue = [3, 21]\nclass = Survived", fillcolor="#399de5db"] ;
36 -> 37 ;
38 [label="gini = 0.5\nsamples = 2\nvalue = [1, 1]\nclass = Died", fillcolor="#e5813900"] ;
36 -> 38 ;
39 [label="Tshare <= 2.5\ngini = 0.063\nsamples = 122\nvalue = [4, 118]\nclass = Survived", fillcolor="#399de5f6"] ;
35 -> 39 ;
40 [label="gini = 0.035\nsamples = 111\nvalue = [2, 109]\nclass = Survived", fillcolor="#399de5fa"] ;
39 -> 40 ;
41 [label="gini = 0.298\nsamples = 11\nvalue = [2, 9]\nclass = Survived", fillcolor="#399de5c6"] ;
39 -> 41 ;
42 [label="Tshare <= 3.5\ngini = 0.5\nsamples = 139\nvalue = [71, 68]\nclass = Died", fillcolor="#e581390b"] ;
28 -> 42 ;
43 [label="Age <= 1.5\ngini = 0.487\nsamples = 117\nvalue = [49, 68]\nclass = Survived", fillcolor="#399de547"] ;
42 -> 43 ;
44 [label="Faretot <= 1.5\ngini = 0.18\nsamples = 20\nvalue = [2, 18]\nclass = Survived", fillcolor="#399de5e3"] ;
43 -> 44 ;
45 [label="gini = 0.5\nsamples = 2\nvalue = [1, 1]\nclass = Died", fillcolor="#e5813900"] ;
44 -> 45 ;
46 [label="gini = 0.105\nsamples = 18\nvalue = [1, 17]\nclass = Survived", fillcolor="#399de5f0"] ;
44 -> 46 ;
47 [label="Farepp <= 1.5\ngini = 0.5\nsamples = 97\nvalue = [47, 50]\nclass = Survived", fillcolor="#399de50f"] ;
43 -> 47 ;
48 [label="gini = 0.479\nsamples = 68\nvalue = [27, 41]\nclass = Survived", fillcolor="#399de557"] ;
47 -> 48 ;
49 [label="gini = 0.428\nsamples = 29\nvalue = [20, 9]\nclass = Died", fillcolor="#e581398c"] ;
47 -> 49 ;
50 [label="gini = 0.0\nsamples = 22\nvalue = [22, 0]\nclass = Died", fillcolor="#e58139ff"] ;
42 -> 50 ;
}